<?xml version="1.0"?>
<opencv_storage>
<cascade>
  <stageType>BOOST</stageType>
  <featureType>HAAR</featureType>
  <height>64</height>
  <width>64</width>
  <stageParams>
    <boostType>GAB</boostType>
    <minHitRate>9.9500000476837158e-01</minHitRate>
    <maxFalseAlarm>5.0000000000000000e-01</maxFalseAlarm>
    <weightTrimRate>9.4999998807907104e-01</weightTrimRate>
    <maxDepth>1</maxDepth>
    <maxWeakCount>100</maxWeakCount></stageParams>
  <featureParams>
    <maxCatCount>0</maxCatCount>
    <featSize>1</featSize>
    <mode>BASIC</mode></featureParams>
  <stageNum>13</stageNum>
  <stages>
    <!-- stage 0 -->
    <_>
      <maxWeakCount>2</maxWeakCount>
      <stageThreshold>-1.4196199178695679e-01</stageThreshold>
      <weakClassifiers>
        <_>
          <internalNodes>
            0 -1 9 2.1373513340950012e-01</internalNodes>
          <leafValues>
            -9.3240559101104736e-01 8.9799636602401733e-01</leafValues></_>
        <_>
          <internalNodes>
            0 -1 43 -2.4101352319121361e-02</internalNodes>
          <leafValues>
            7.9044359922409058e-01 -9.8255974054336548e-01</leafValues></_></weakClassifiers></_>
    <!-- stage 1 -->
    <_>
      <maxWeakCount>2</maxWeakCount>
      <stageThreshold>-8.3481572568416595e-02</stageThreshold>
      <weakClassifiers>
        <_>
          <internalNodes>
            0 -1 30 -4.1878812015056610e-02</internalNodes>
          <leafValues>
            9.2156863212585449e-01 -8.7559807300567627e-01</leafValues></_>
        <_>
          <internalNodes>
            0 -1 3 2.0184174180030823e-02</internalNodes>
          <leafValues>
            -9.7187972068786621e-01 7.9211652278900146e-01</leafValues></_></weakClassifiers></_>
    <!-- stage 2 -->
    <_>
      <maxWeakCount>3</maxWeakCount>
      <stageThreshold>-9.9203777313232422e-01</stageThreshold>
      <weakClassifiers>
        <_>
          <internalNodes>
            0 -1 26 1.9825905561447144e-01</internalNodes>
          <leafValues>
            -8.8223940134048462e-01 9.0366089344024658e-01</leafValues></_>
        <_>
          <internalNodes>
            0 -1 33 3.0973065644502640e-02</internalNodes>
          <leafValues>
            -6.6706681251525879e-01 8.6285758018493652e-01</leafValues></_>
        <_>
          <internalNodes>
            0 -1 12 1.8409069627523422e-02</internalNodes>
          <leafValues>
            -9.5509666204452515e-01 5.5726844072341919e-01</leafValues></_></weakClassifiers></_>
    <!-- stage 3 -->
    <_>
      <maxWeakCount>4</maxWeakCount>
      <stageThreshold>-8.5279798507690430e-01</stageThreshold>
      <weakClassifiers>
        <_>
          <internalNodes>
            0 -1 29 2.3840418457984924e-01</internalNodes>
          <leafValues>
            -8.5127198696136475e-01 7.9737335443496704e-01</leafValues></_>
        <_>
          <internalNodes>
            0 -1 35 2.1006787195801735e-02</internalNodes>
          <leafValues>
            -8.1638747453689575e-01 6.4109444618225098e-01</leafValues></_>
        <_>
          <internalNodes>
            0 -1 0 4.4994084164500237e-03</internalNodes>
          <leafValues>
            -9.5134109258651733e-01 3.7191438674926758e-01</leafValues></_>
        <_>
          <internalNodes>
            0 -1 32 2.0780686289072037e-02</internalNodes>
          <leafValues>
            -9.0380799770355225e-01 4.4294711947441101e-01</leafValues></_></weakClassifiers></_>
    <!-- stage 4 -->
    <_>
      <maxWeakCount>3</maxWeakCount>
      <stageThreshold>-1.0333440303802490e+00</stageThreshold>
      <weakClassifiers>
        <_>
          <internalNodes>
            0 -1 25 -7.5660392642021179e-02</internalNodes>
          <leafValues>
            8.6892175674438477e-01 -7.9112756252288818e-01</leafValues></_>
        <_>
          <internalNodes>
            0 -1 41 4.6204168349504471e-02</internalNodes>
          <leafValues>
            -6.8871343135833740e-01 7.1978789567947388e-01</leafValues></_>
        <_>
          <internalNodes>
            0 -1 38 1.4507267624139786e-03</internalNodes>
          <leafValues>
            4.4649693369865417e-01 -9.8831570148468018e-01</leafValues></_></weakClassifiers></_>
    <!-- stage 5 -->
    <_>
      <maxWeakCount>3</maxWeakCount>
      <stageThreshold>-1.0005265474319458e+00</stageThreshold>
      <weakClassifiers>
        <_>
          <internalNodes>
            0 -1 28 2.4795059114694595e-02</internalNodes>
          <leafValues>
            -7.5272727012634277e-01 8.4175825119018555e-01</leafValues></_>
        <_>
          <internalNodes>
            0 -1 40 2.5361001491546631e-02</internalNodes>
          <leafValues>
            -8.4975796937942505e-01 5.8518004417419434e-01</leafValues></_>
        <_>
          <internalNodes>
            0 -1 46 -9.0660955756902695e-03</internalNodes>
          <leafValues>
            6.0195869207382202e-01 -7.2275358438491821e-01</leafValues></_></weakClassifiers></_>
    <!-- stage 6 -->
    <_>
      <maxWeakCount>4</maxWeakCount>
      <stageThreshold>-7.6483345031738281e-01</stageThreshold>
      <weakClassifiers>
        <_>
          <internalNodes>
            0 -1 24 -1.4991047978401184e-01</internalNodes>
          <leafValues>
            6.5120595693588257e-01 -7.8346455097198486e-01</leafValues></_>
        <_>
          <internalNodes>
            0 -1 1 1.3120092451572418e-02</internalNodes>
          <leafValues>
            -7.6886254549026489e-01 5.4291939735412598e-01</leafValues></_>
        <_>
          <internalNodes>
            0 -1 2 1.6461413353681564e-02</internalNodes>
          <leafValues>
            -8.6102074384689331e-01 5.4392528533935547e-01</leafValues></_>
        <_>
          <internalNodes>
            0 -1 14 8.4907919168472290e-02</internalNodes>
          <leafValues>
            -9.8453438282012939e-01 3.3673247694969177e-01</leafValues></_></weakClassifiers></_>
    <!-- stage 7 -->
    <_>
      <maxWeakCount>4</maxWeakCount>
      <stageThreshold>-7.3401242494583130e-01</stageThreshold>
      <weakClassifiers>
        <_>
          <internalNodes>
            0 -1 10 7.1682348847389221e-02</internalNodes>
          <leafValues>
            -8.6748218536376953e-01 7.0731705427169800e-01</leafValues></_>
        <_>
          <internalNodes>
            0 -1 31 -3.3457302488386631e-03</internalNodes>
          <leafValues>
            6.4704179763793945e-01 -6.4790278673171997e-01</leafValues></_>
        <_>
          <internalNodes>
            0 -1 44 -6.7194164730608463e-03</internalNodes>
          <leafValues>
            4.7471106052398682e-01 -8.5572808980941772e-01</leafValues></_>
        <_>
          <internalNodes>
            0 -1 45 -7.7749791671521962e-05</internalNodes>
          <leafValues>
            -8.5396617650985718e-01 3.4215605258941650e-01</leafValues></_></weakClassifiers></_>
    <!-- stage 8 -->
    <_>
      <maxWeakCount>4</maxWeakCount>
      <stageThreshold>-7.0580679178237915e-01</stageThreshold>
      <weakClassifiers>
        <_>
          <internalNodes>
            0 -1 19 -1.7489425837993622e-02</internalNodes>
          <leafValues>
            6.3305783271789551e-01 -8.7157893180847168e-01</leafValues></_>
        <_>
          <internalNodes>
            0 -1 18 3.2893067598342896e-01</internalNodes>
          <leafValues>
            -7.0907169580459595e-01 5.9055346250534058e-01</leafValues></_>
        <_>
          <internalNodes>
            0 -1 42 -3.2449085265398026e-02</internalNodes>
          <leafValues>
            4.8316213488578796e-01 -8.1438535451889038e-01</leafValues></_>
        <_>
          <internalNodes>
            0 -1 34 -3.9346265839412808e-04</internalNodes>
          <leafValues>
            -9.0794348716735840e-01 4.1145706176757813e-01</leafValues></_></weakClassifiers></_>
    <!-- stage 9 -->
    <_>
      <maxWeakCount>5</maxWeakCount>
      <stageThreshold>-9.8274421691894531e-01</stageThreshold>
      <weakClassifiers>
        <_>
          <internalNodes>
            0 -1 16 -8.3445496857166290e-03</internalNodes>
          <leafValues>
            8.0971658229827881e-01 -7.9641848802566528e-01</leafValues></_>
        <_>
          <internalNodes>
            0 -1 17 -2.5696843862533569e-01</internalNodes>
          <leafValues>
            7.7791482210159302e-01 -6.5551722049713135e-01</leafValues></_>
        <_>
          <internalNodes>
            0 -1 20 -5.3222253918647766e-02</internalNodes>
          <leafValues>
            9.0650951862335205e-01 -5.1722669601440430e-01</leafValues></_>
        <_>
          <internalNodes>
            0 -1 47 3.3634802093729377e-04</internalNodes>
          <leafValues>
            5.0353473424911499e-01 -9.2688834667205811e-01</leafValues></_>
        <_>
          <internalNodes>
            0 -1 22 3.2835945487022400e-02</internalNodes>
          <leafValues>
            -7.6827728748321533e-01 4.8288345336914063e-01</leafValues></_></weakClassifiers></_>
    <!-- stage 10 -->
    <_>
      <maxWeakCount>5</maxWeakCount>
      <stageThreshold>-1.1560959815979004e+00</stageThreshold>
      <weakClassifiers>
        <_>
          <internalNodes>
            0 -1 27 4.9643218517303467e-02</internalNodes>
          <leafValues>
            -7.2511011362075806e-01 8.9999997615814209e-01</leafValues></_>
        <_>
          <internalNodes>
            0 -1 15 9.5424264669418335e-02</internalNodes>
          <leafValues>
            -7.1171182394027710e-01 6.0321784019470215e-01</leafValues></_>
        <_>
          <internalNodes>
            0 -1 8 2.7019105851650238e-02</internalNodes>
          <leafValues>
            -9.2033225297927856e-01 4.5004734396934509e-01</leafValues></_>
        <_>
          <internalNodes>
            0 -1 36 3.9216481149196625e-02</internalNodes>
          <leafValues>
            -6.2780094146728516e-01 6.9704931974411011e-01</leafValues></_>
        <_>
          <internalNodes>
            0 -1 6 -6.2983614043332636e-05</internalNodes>
          <leafValues>
            -8.1927710771560669e-01 5.1392948627471924e-01</leafValues></_></weakClassifiers></_>
    <!-- stage 11 -->
    <_>
      <maxWeakCount>5</maxWeakCount>
      <stageThreshold>-1.4298788309097290e+00</stageThreshold>
      <weakClassifiers>
        <_>
          <internalNodes>
            0 -1 39 1.5807602554559708e-02</internalNodes>
          <leafValues>
            -7.5718259811401367e-01 7.8151261806488037e-01</leafValues></_>
        <_>
          <internalNodes>
            0 -1 13 -3.6626338260248303e-04</internalNodes>
          <leafValues>
            -9.3773764371871948e-01 3.9063286781311035e-01</leafValues></_>
        <_>
          <internalNodes>
            0 -1 4 1.6244888305664063e-02</internalNodes>
          <leafValues>
            -6.9357192516326904e-01 4.7038769721984863e-01</leafValues></_>
        <_>
          <internalNodes>
            0 -1 7 1.5343833714723587e-02</internalNodes>
          <leafValues>
            -8.6254870891571045e-01 4.9762687087059021e-01</leafValues></_>
        <_>
          <internalNodes>
            0 -1 21 8.2601241767406464e-02</internalNodes>
          <leafValues>
            -7.2962445020675659e-01 4.9279150366783142e-01</leafValues></_></weakClassifiers></_>
    <!-- stage 12 -->
    <_>
      <maxWeakCount>4</maxWeakCount>
      <stageThreshold>-9.3539184331893921e-01</stageThreshold>
      <weakClassifiers>
        <_>
          <internalNodes>
            0 -1 37 1.1620927602052689e-02</internalNodes>
          <leafValues>
            -7.7260017395019531e-01 7.9668051004409790e-01</leafValues></_>
        <_>
          <internalNodes>
            0 -1 11 2.4071456864476204e-02</internalNodes>
          <leafValues>
            -8.3233320713043213e-01 4.7476696968078613e-01</leafValues></_>
        <_>
          <internalNodes>
            0 -1 5 -1.5253713354468346e-04</internalNodes>
          <leafValues>
            -8.8502991199493408e-01 3.6277765035629272e-01</leafValues></_>
        <_>
          <internalNodes>
            0 -1 23 6.6778040491044521e-05</internalNodes>
          <leafValues>
            3.0676388740539551e-01 -9.1556751728057861e-01</leafValues></_></weakClassifiers></_></stages>
  <features>
    <_>
      <rects>
        <_>
          0 2 32 18 -1.</_>
        <_>
          16 2 16 18 2.</_></rects>
      <tilted>0</tilted></_>
    <_>
      <rects>
        <_>
          0 8 60 2 -1.</_>
        <_>
          20 8 20 2 3.</_></rects>
      <tilted>0</tilted></_>
    <_>
      <rects>
        <_>
          0 11 10 32 -1.</_>
        <_>
          5 11 5 32 2.</_></rects>
      <tilted>0</tilted></_>
    <_>
      <rects>
        <_>
          0 14 14 24 -1.</_>
        <_>
          7 14 7 24 2.</_></rects>
      <tilted>0</tilted></_>
    <_>
      <rects>
        <_>
          0 19 12 13 -1.</_>
        <_>
          6 19 6 13 2.</_></rects>
      <tilted>0</tilted></_>
    <_>
      <rects>
        <_>
          0 29 1 14 -1.</_>
        <_>
          0 36 1 7 2.</_></rects>
      <tilted>0</tilted></_>
    <_>
      <rects>
        <_>
          3 4 20 1 -1.</_>
        <_>
          13 4 10 1 2.</_></rects>
      <tilted>0</tilted></_>
    <_>
      <rects>
        <_>
          6 39 28 19 -1.</_>
        <_>
          20 39 14 19 2.</_></rects>
      <tilted>0</tilted></_>
    <_>
      <rects>
        <_>
          7 0 11 30 -1.</_>
        <_>
          7 15 11 15 2.</_></rects>
      <tilted>0</tilted></_>
    <_>
      <rects>
        <_>
          7 0 57 48 -1.</_>
        <_>
          7 24 57 24 2.</_></rects>
      <tilted>0</tilted></_>
    <_>
      <rects>
        <_>
          7 13 34 38 -1.</_>
        <_>
          7 13 17 19 2.</_>
        <_>
          24 32 17 19 2.</_></rects>
      <tilted>0</tilted></_>
    <_>
      <rects>
        <_>
          9 0 7 32 -1.</_>
        <_>
          9 16 7 16 2.</_></rects>
      <tilted>0</tilted></_>
    <_>
      <rects>
        <_>
          10 0 7 30 -1.</_>
        <_>
          10 15 7 15 2.</_></rects>
      <tilted>0</tilted></_>
    <_>
      <rects>
        <_>
          10 0 30 14 -1.</_>
        <_>
          25 0 15 14 2.</_></rects>
      <tilted>0</tilted></_>
    <_>
      <rects>
        <_>
          10 0 50 44 -1.</_>
        <_>
          10 22 50 22 2.</_></rects>
      <tilted>0</tilted></_>
    <_>
      <rects>
        <_>
          10 30 54 30 -1.</_>
        <_>
          28 30 18 30 3.</_></rects>
      <tilted>0</tilted></_>
    <_>
      <rects>
        <_>
          11 22 48 1 -1.</_>
        <_>
          27 22 16 1 3.</_></rects>
      <tilted>0</tilted></_>
    <_>
      <rects>
        <_>
          11 30 53 34 -1.</_>
        <_>
          11 47 53 17 2.</_></rects>
      <tilted>0</tilted></_>
    <_>
      <rects>
        <_>
          17 13 36 51 -1.</_>
        <_>
          17 30 36 17 3.</_></rects>
      <tilted>0</tilted></_>
    <_>
      <rects>
        <_>
          18 5 30 37 -1.</_>
        <_>
          28 5 10 37 3.</_></rects>
      <tilted>0</tilted></_>
    <_>
      <rects>
        <_>
          18 13 27 21 -1.</_>
        <_>
          18 20 27 7 3.</_></rects>
      <tilted>0</tilted></_>
    <_>
      <rects>
        <_>
          18 17 31 33 -1.</_>
        <_>
          18 28 31 11 3.</_></rects>
      <tilted>0</tilted></_>
    <_>
      <rects>
        <_>
          18 38 45 25 -1.</_>
        <_>
          33 38 15 25 3.</_></rects>
      <tilted>0</tilted></_>
    <_>
      <rects>
        <_>
          18 63 12 1 -1.</_>
        <_>
          22 63 4 1 3.</_></rects>
      <tilted>0</tilted></_>
    <_>
      <rects>
        <_>
          19 40 43 24 -1.</_>
        <_>
          19 52 43 12 2.</_></rects>
      <tilted>0</tilted></_>
    <_>
      <rects>
        <_>
          21 8 21 24 -1.</_>
        <_>
          21 16 21 8 3.</_></rects>
      <tilted>0</tilted></_>
    <_>
      <rects>
        <_>
          21 19 25 45 -1.</_>
        <_>
          21 34 25 15 3.</_></rects>
      <tilted>0</tilted></_>
    <_>
      <rects>
        <_>
          22 0 21 18 -1.</_>
        <_>
          22 6 21 6 3.</_></rects>
      <tilted>0</tilted></_>
    <_>
      <rects>
        <_>
          22 2 16 15 -1.</_>
        <_>
          22 7 16 5 3.</_></rects>
      <tilted>0</tilted></_>
    <_>
      <rects>
        <_>
          22 16 25 48 -1.</_>
        <_>
          22 32 25 16 3.</_></rects>
      <tilted>0</tilted></_>
    <_>
      <rects>
        <_>
          23 10 19 21 -1.</_>
        <_>
          23 17 19 7 3.</_></rects>
      <tilted>0</tilted></_>
    <_>
      <rects>
        <_>
          27 7 1 24 -1.</_>
        <_>
          27 15 1 8 3.</_></rects>
      <tilted>0</tilted></_>
    <_>
      <rects>
        <_>
          29 23 7 33 -1.</_>
        <_>
          29 34 7 11 3.</_></rects>
      <tilted>0</tilted></_>
    <_>
      <rects>
        <_>
          30 5 26 18 -1.</_>
        <_>
          30 5 13 9 2.</_>
        <_>
          43 14 13 9 2.</_></rects>
      <tilted>0</tilted></_>
    <_>
      <rects>
        <_>
          32 0 9 15 -1.</_>
        <_>
          35 0 3 15 3.</_></rects>
      <tilted>0</tilted></_>
    <_>
      <rects>
        <_>
          34 20 30 11 -1.</_>
        <_>
          44 20 10 11 3.</_></rects>
      <tilted>0</tilted></_>
    <_>
      <rects>
        <_>
          37 25 7 39 -1.</_>
        <_>
          37 38 7 13 3.</_></rects>
      <tilted>0</tilted></_>
    <_>
      <rects>
        <_>
          38 17 14 6 -1.</_>
        <_>
          45 17 7 6 2.</_></rects>
      <tilted>0</tilted></_>
    <_>
      <rects>
        <_>
          39 46 22 18 -1.</_>
        <_>
          50 46 11 18 2.</_></rects>
      <tilted>0</tilted></_>
    <_>
      <rects>
        <_>
          40 17 18 8 -1.</_>
        <_>
          46 17 6 8 3.</_></rects>
      <tilted>0</tilted></_>
    <_>
      <rects>
        <_>
          48 0 8 34 -1.</_>
        <_>
          48 17 8 17 2.</_></rects>
      <tilted>0</tilted></_>
    <_>
      <rects>
        <_>
          50 0 10 40 -1.</_>
        <_>
          50 20 10 20 2.</_></rects>
      <tilted>0</tilted></_>
    <_>
      <rects>
        <_>
          52 0 12 54 -1.</_>
        <_>
          58 0 6 54 2.</_></rects>
      <tilted>0</tilted></_>
    <_>
      <rects>
        <_>
          52 8 12 51 -1.</_>
        <_>
          58 8 6 51 2.</_></rects>
      <tilted>0</tilted></_>
    <_>
      <rects>
        <_>
          55 19 8 19 -1.</_>
        <_>
          59 19 4 19 2.</_></rects>
      <tilted>0</tilted></_>
    <_>
      <rects>
        <_>
          58 1 6 2 -1.</_>
        <_>
          61 1 3 2 2.</_></rects>
      <tilted>0</tilted></_>
    <_>
      <rects>
        <_>
          58 8 6 38 -1.</_>
        <_>
          61 8 3 38 2.</_></rects>
      <tilted>0</tilted></_>
    <_>
      <rects>
        <_>
          62 47 2 16 -1.</_>
        <_>
          62 55 2 8 2.</_></rects>
      <tilted>0</tilted></_></features></cascade>
</opencv_storage>
