<?xml version="1.0"?>
<opencv_storage>
<stage11>
  <maxWeakCount>5</maxWeakCount>
  <stageThreshold>-1.4298788309097290e+00</stageThreshold>
  <weakClassifiers>
    <_>
      <internalNodes>
        0 -1 7001132 1.5807602554559708e-02</internalNodes>
      <leafValues>
        -7.5718259811401367e-01 7.8151261806488037e-01</leafValues></_>
    <_>
      <internalNodes>
        0 -1 2333447 -3.6626338260248303e-04</internalNodes>
      <leafValues>
        -9.3773764371871948e-01 3.9063286781311035e-01</leafValues></_>
    <_>
      <internalNodes>
        0 -1 127806 1.6244888305664063e-02</internalNodes>
      <leafValues>
        -6.9357192516326904e-01 4.7038769721984863e-01</leafValues></_>
    <_>
      <internalNodes>
        0 -1 1639602 1.5343833714723587e-02</internalNodes>
      <leafValues>
        -8.6254870891571045e-01 4.9762687087059021e-01</leafValues></_>
    <_>
      <internalNodes>
        0 -1 3997516 8.2601241767406464e-02</internalNodes>
      <leafValues>
        -7.2962445020675659e-01 4.9279150366783142e-01</leafValues></_></weakClassifiers></stage11>
</opencv_storage>
