<?xml version="1.0"?>
<opencv_storage>
<stage12>
  <maxWeakCount>6</maxWeakCount>
  <stageThreshold>-1.1835073232650757e+00</stageThreshold>
  <weakClassifiers>
    <_>
      <internalNodes>
        0 -1 424717 7.8613050282001495e-03</internalNodes>
      <leafValues>
        -6.0639190673828125e-01 7.5069254636764526e-01</leafValues></_>
    <_>
      <internalNodes>
        0 -1 87090 2.5688357651233673e-02</internalNodes>
      <leafValues>
        -5.0723165273666382e-01 6.5814864635467529e-01</leafValues></_>
    <_>
      <internalNodes>
        0 -1 372066 -7.9701340291649103e-04</internalNodes>
      <leafValues>
        -8.3911955356597900e-01 3.3862310647964478e-01</leafValues></_>
    <_>
      <internalNodes>
        0 -1 31274 5.4653268307447433e-04</internalNodes>
      <leafValues>
        2.6888129115104675e-01 -8.6091983318328857e-01</leafValues></_>
    <_>
      <internalNodes>
        0 -1 426229 2.0435728132724762e-02</internalNodes>
      <leafValues>
        -3.7932258844375610e-01 7.9654014110565186e-01</leafValues></_>
    <_>
      <internalNodes>
        0 -1 106958 -7.0129162631928921e-03</internalNodes>
      <leafValues>
        8.7967705726623535e-01 -2.7889493107795715e-01</leafValues></_></weakClassifiers></stage12>
</opencv_storage>
