<?xml version="1.0"?>
<opencv_storage>
<cascade>
  <stageType>BOOST</stageType>
  <featureType>HAAR</featureType>
  <height>32</height>
  <width>32</width>
  <stageParams>
    <boostType>GAB</boostType>
    <minHitRate>9.9500000476837158e-01</minHitRate>
    <maxFalseAlarm>5.0000000000000000e-01</maxFalseAlarm>
    <weightTrimRate>9.4999998807907104e-01</weightTrimRate>
    <maxDepth>1</maxDepth>
    <maxWeakCount>100</maxWeakCount></stageParams>
  <featureParams>
    <maxCatCount>0</maxCatCount>
    <featSize>1</featSize>
    <mode>BASIC</mode></featureParams>
  <stageNum>16</stageNum>
  <stages>
    <!-- stage 0 -->
    <_>
      <maxWeakCount>2</maxWeakCount>
      <stageThreshold>-3.0243730545043945e-01</stageThreshold>
      <weakClassifiers>
        <_>
          <internalNodes>
            0 -1 17 1.8393319845199585e-01</internalNodes>
          <leafValues>
            -9.6273291110992432e-01 8.2191783189773560e-01</leafValues></_>
        <_>
          <internalNodes>
            0 -1 3 4.8687115311622620e-02</internalNodes>
          <leafValues>
            -9.2662906646728516e-01 6.6029560565948486e-01</leafValues></_></weakClassifiers></_>
    <!-- stage 1 -->
    <_>
      <maxWeakCount>3</maxWeakCount>
      <stageThreshold>-1.1057747602462769e+00</stageThreshold>
      <weakClassifiers>
        <_>
          <internalNodes>
            0 -1 29 -3.9405427873134613e-02</internalNodes>
          <leafValues>
            8.0265653133392334e-01 -8.5337245464324951e-01</leafValues></_>
        <_>
          <internalNodes>
            0 -1 13 3.9443362504243851e-02</internalNodes>
          <leafValues>
            -8.2941210269927979e-01 6.7536872625350952e-01</leafValues></_>
        <_>
          <internalNodes>
            0 -1 35 8.7242744863033295e-02</internalNodes>
          <leafValues>
            -9.2777109146118164e-01 6.4264863729476929e-01</leafValues></_></weakClassifiers></_>
    <!-- stage 2 -->
    <_>
      <maxWeakCount>3</maxWeakCount>
      <stageThreshold>-1.1059027910232544e+00</stageThreshold>
      <weakClassifiers>
        <_>
          <internalNodes>
            0 -1 57 6.3215261325240135e-03</internalNodes>
          <leafValues>
            -7.5955265760421753e-01 7.6519918441772461e-01</leafValues></_>
        <_>
          <internalNodes>
            0 -1 14 -2.0142195746302605e-02</internalNodes>
          <leafValues>
            6.1724883317947388e-01 -8.6492669582366943e-01</leafValues></_>
        <_>
          <internalNodes>
            0 -1 2 7.9904660582542419e-02</internalNodes>
          <leafValues>
            -7.4345219135284424e-01 5.1857656240463257e-01</leafValues></_></weakClassifiers></_>
    <!-- stage 3 -->
    <_>
      <maxWeakCount>3</maxWeakCount>
      <stageThreshold>-9.3778514862060547e-01</stageThreshold>
      <weakClassifiers>
        <_>
          <internalNodes>
            0 -1 56 1.0469296947121620e-02</internalNodes>
          <leafValues>
            -7.8278690576553345e-01 5.4703831672668457e-01</leafValues></_>
        <_>
          <internalNodes>
            0 -1 24 1.2350203469395638e-02</internalNodes>
          <leafValues>
            -5.9507071971893311e-01 7.3921614885330200e-01</leafValues></_>
        <_>
          <internalNodes>
            0 -1 61 5.8937333524227142e-02</internalNodes>
          <leafValues>
            -8.9421439170837402e-01 4.7196874022483826e-01</leafValues></_></weakClassifiers></_>
    <!-- stage 4 -->
    <_>
      <maxWeakCount>4</maxWeakCount>
      <stageThreshold>-1.2052592039108276e+00</stageThreshold>
      <weakClassifiers>
        <_>
          <internalNodes>
            0 -1 7 1.8865369260311127e-02</internalNodes>
          <leafValues>
            -8.6516851186752319e-01 4.8484849929809570e-01</leafValues></_>
        <_>
          <internalNodes>
            0 -1 41 -7.5497641228139400e-03</internalNodes>
          <leafValues>
            9.3295681476593018e-01 -5.4658043384552002e-01</leafValues></_>
        <_>
          <internalNodes>
            0 -1 49 1.0235941037535667e-02</internalNodes>
          <leafValues>
            -6.2662160396575928e-01 6.8331646919250488e-01</leafValues></_>
        <_>
          <internalNodes>
            0 -1 32 -6.7827021703124046e-03</internalNodes>
          <leafValues>
            9.3534517288208008e-01 -4.7682666778564453e-01</leafValues></_></weakClassifiers></_>
    <!-- stage 5 -->
    <_>
      <maxWeakCount>6</maxWeakCount>
      <stageThreshold>-1.6066250801086426e+00</stageThreshold>
      <weakClassifiers>
        <_>
          <internalNodes>
            0 -1 67 -1.9559536129236221e-02</internalNodes>
          <leafValues>
            8.9473682641983032e-01 -6.2582778930664063e-01</leafValues></_>
        <_>
          <internalNodes>
            0 -1 39 -2.0154658704996109e-02</internalNodes>
          <leafValues>
            4.8643153905868530e-01 -8.0222511291503906e-01</leafValues></_>
        <_>
          <internalNodes>
            0 -1 60 -9.3506928533315659e-03</internalNodes>
          <leafValues>
            5.4508656263351440e-01 -6.4436465501785278e-01</leafValues></_>
        <_>
          <internalNodes>
            0 -1 18 -2.8745893388986588e-02</internalNodes>
          <leafValues>
            8.8050222396850586e-01 -3.5871812701225281e-01</leafValues></_>
        <_>
          <internalNodes>
            0 -1 0 2.6999764144420624e-02</internalNodes>
          <leafValues>
            -7.2407859563827515e-01 4.6001744270324707e-01</leafValues></_>
        <_>
          <internalNodes>
            0 -1 45 -6.6278097219765186e-03</internalNodes>
          <leafValues>
            3.6449319124221802e-01 -8.8840091228485107e-01</leafValues></_></weakClassifiers></_>
    <!-- stage 6 -->
    <_>
      <maxWeakCount>3</maxWeakCount>
      <stageThreshold>-7.8016698360443115e-01</stageThreshold>
      <weakClassifiers>
        <_>
          <internalNodes>
            0 -1 40 -7.1633206680417061e-03</internalNodes>
          <leafValues>
            7.8201633691787720e-01 -6.2299239635467529e-01</leafValues></_>
        <_>
          <internalNodes>
            0 -1 11 -1.7209198325872421e-02</internalNodes>
          <leafValues>
            4.0235090255737305e-01 -8.8243764638900757e-01</leafValues></_>
        <_>
          <internalNodes>
            0 -1 23 -2.0895482972264290e-02</internalNodes>
          <leafValues>
            7.4128299951553345e-01 -5.5952548980712891e-01</leafValues></_></weakClassifiers></_>
    <!-- stage 7 -->
    <_>
      <maxWeakCount>4</maxWeakCount>
      <stageThreshold>-1.1011389493942261e+00</stageThreshold>
      <weakClassifiers>
        <_>
          <internalNodes>
            0 -1 66 2.5807969272136688e-02</internalNodes>
          <leafValues>
            -5.9032255411148071e-01 9.0967744588851929e-01</leafValues></_>
        <_>
          <internalNodes>
            0 -1 54 -1.1648736894130707e-02</internalNodes>
          <leafValues>
            4.3793341517448425e-01 -7.8909188508987427e-01</leafValues></_>
        <_>
          <internalNodes>
            0 -1 26 2.6413645595312119e-02</internalNodes>
          <leafValues>
            -4.4030547142028809e-01 8.3437150716781616e-01</leafValues></_>
        <_>
          <internalNodes>
            0 -1 65 -5.4803881794214249e-02</internalNodes>
          <leafValues>
            7.1858096122741699e-01 -4.2515319585800171e-01</leafValues></_></weakClassifiers></_>
    <!-- stage 8 -->
    <_>
      <maxWeakCount>5</maxWeakCount>
      <stageThreshold>-1.0816017389297485e+00</stageThreshold>
      <weakClassifiers>
        <_>
          <internalNodes>
            0 -1 19 2.2762827575206757e-02</internalNodes>
          <leafValues>
            -6.6123187541961670e-01 6.2780267000198364e-01</leafValues></_>
        <_>
          <internalNodes>
            0 -1 38 7.2799879126250744e-04</internalNodes>
          <leafValues>
            3.7068009376525879e-01 -8.5892575979232788e-01</leafValues></_>
        <_>
          <internalNodes>
            0 -1 44 -5.4987426847219467e-03</internalNodes>
          <leafValues>
            8.4724682569503784e-01 -4.0717107057571411e-01</leafValues></_>
        <_>
          <internalNodes>
            0 -1 1 1.7577249556779861e-02</internalNodes>
          <leafValues>
            -6.3262557983398438e-01 4.9772348999977112e-01</leafValues></_>
        <_>
          <internalNodes>
            0 -1 21 7.2186989709734917e-03</internalNodes>
          <leafValues>
            3.9936307072639465e-01 -8.8160234689712524e-01</leafValues></_></weakClassifiers></_>
    <!-- stage 9 -->
    <_>
      <maxWeakCount>5</maxWeakCount>
      <stageThreshold>-1.0034341812133789e+00</stageThreshold>
      <weakClassifiers>
        <_>
          <internalNodes>
            0 -1 62 -1.5112617053091526e-02</internalNodes>
          <leafValues>
            7.7595627307891846e-01 -6.1993241310119629e-01</leafValues></_>
        <_>
          <internalNodes>
            0 -1 4 3.4342706203460693e-02</internalNodes>
          <leafValues>
            -5.3782957792282104e-01 6.4722067117691040e-01</leafValues></_>
        <_>
          <internalNodes>
            0 -1 37 -7.6356893405318260e-03</internalNodes>
          <leafValues>
            9.1731411218643188e-01 -3.4710529446601868e-01</leafValues></_>
        <_>
          <internalNodes>
            0 -1 28 -6.0745812952518463e-03</internalNodes>
          <leafValues>
            8.7752765417098999e-01 -3.3348336815834045e-01</leafValues></_>
        <_>
          <internalNodes>
            0 -1 33 -6.4521632157266140e-03</internalNodes>
          <leafValues>
            9.0697854757308960e-01 -3.5013377666473389e-01</leafValues></_></weakClassifiers></_>
    <!-- stage 10 -->
    <_>
      <maxWeakCount>5</maxWeakCount>
      <stageThreshold>-1.8701279163360596e+00</stageThreshold>
      <weakClassifiers>
        <_>
          <internalNodes>
            0 -1 64 -1.6117876395583153e-02</internalNodes>
          <leafValues>
            8.2857143878936768e-01 -5.7570850849151611e-01</leafValues></_>
        <_>
          <internalNodes>
            0 -1 30 5.4169729351997375e-02</internalNodes>
          <leafValues>
            -8.4014958143234253e-01 3.8108387589454651e-01</leafValues></_>
        <_>
          <internalNodes>
            0 -1 10 -3.1871162354946136e-02</internalNodes>
          <leafValues>
            5.4947459697723389e-01 -5.5072706937789917e-01</leafValues></_>
        <_>
          <internalNodes>
            0 -1 6 -8.5394857451319695e-03</internalNodes>
          <leafValues>
            4.0684553980827332e-01 -7.7541118860244751e-01</leafValues></_>
        <_>
          <internalNodes>
            0 -1 48 -4.8660398460924625e-03</internalNodes>
          <leafValues>
            8.1702655553817749e-01 -3.4936508536338806e-01</leafValues></_></weakClassifiers></_>
    <!-- stage 11 -->
    <_>
      <maxWeakCount>7</maxWeakCount>
      <stageThreshold>-1.2938650846481323e+00</stageThreshold>
      <weakClassifiers>
        <_>
          <internalNodes>
            0 -1 22 2.6393502950668335e-02</internalNodes>
          <leafValues>
            -6.0672271251678467e-01 7.5555557012557983e-01</leafValues></_>
        <_>
          <internalNodes>
            0 -1 52 -2.4390250444412231e-02</internalNodes>
          <leafValues>
            5.2346819639205933e-01 -6.1747676134109497e-01</leafValues></_>
        <_>
          <internalNodes>
            0 -1 51 1.0052147554233670e-03</internalNodes>
          <leafValues>
            3.9848777651786804e-01 -7.2889602184295654e-01</leafValues></_>
        <_>
          <internalNodes>
            0 -1 68 -8.0365616668132134e-06</internalNodes>
          <leafValues>
            3.3003371953964233e-01 -7.9347389936447144e-01</leafValues></_>
        <_>
          <internalNodes>
            0 -1 8 1.1867395369336009e-04</internalNodes>
          <leafValues>
            3.7414687871932983e-01 -7.5191593170166016e-01</leafValues></_>
        <_>
          <internalNodes>
            0 -1 27 4.1269976645708084e-02</internalNodes>
          <leafValues>
            -3.9213448762893677e-01 8.3637684583663940e-01</leafValues></_>
        <_>
          <internalNodes>
            0 -1 31 -1.4041811227798462e-02</internalNodes>
          <leafValues>
            3.4718427062034607e-01 -9.8444104194641113e-01</leafValues></_></weakClassifiers></_>
    <!-- stage 12 -->
    <_>
      <maxWeakCount>6</maxWeakCount>
      <stageThreshold>-1.1835073232650757e+00</stageThreshold>
      <weakClassifiers>
        <_>
          <internalNodes>
            0 -1 58 7.8613050282001495e-03</internalNodes>
          <leafValues>
            -6.0639190673828125e-01 7.5069254636764526e-01</leafValues></_>
        <_>
          <internalNodes>
            0 -1 12 2.5688357651233673e-02</internalNodes>
          <leafValues>
            -5.0723165273666382e-01 6.5814864635467529e-01</leafValues></_>
        <_>
          <internalNodes>
            0 -1 46 -7.9701340291649103e-04</internalNodes>
          <leafValues>
            -8.3911955356597900e-01 3.3862310647964478e-01</leafValues></_>
        <_>
          <internalNodes>
            0 -1 9 5.4653268307447433e-04</internalNodes>
          <leafValues>
            2.6888129115104675e-01 -8.6091983318328857e-01</leafValues></_>
        <_>
          <internalNodes>
            0 -1 59 2.0435728132724762e-02</internalNodes>
          <leafValues>
            -3.7932258844375610e-01 7.9654014110565186e-01</leafValues></_>
        <_>
          <internalNodes>
            0 -1 15 -7.0129162631928921e-03</internalNodes>
          <leafValues>
            8.7967705726623535e-01 -2.7889493107795715e-01</leafValues></_></weakClassifiers></_>
    <!-- stage 13 -->
    <_>
      <maxWeakCount>4</maxWeakCount>
      <stageThreshold>-7.0022153854370117e-01</stageThreshold>
      <weakClassifiers>
        <_>
          <internalNodes>
            0 -1 55 -7.3915598914027214e-03</internalNodes>
          <leafValues>
            9.7656250000000000e-01 -5.4095828533172607e-01</leafValues></_>
        <_>
          <internalNodes>
            0 -1 20 7.4467702688707504e-06</internalNodes>
          <leafValues>
            -6.2994629144668579e-01 5.3203541040420532e-01</leafValues></_>
        <_>
          <internalNodes>
            0 -1 47 -9.7906133159995079e-03</internalNodes>
          <leafValues>
            9.3058371543884277e-01 -4.1153576970100403e-01</leafValues></_>
        <_>
          <internalNodes>
            0 -1 50 -7.5804935768246651e-03</internalNodes>
          <leafValues>
            9.3037194013595581e-01 -2.7976292371749878e-01</leafValues></_></weakClassifiers></_>
    <!-- stage 14 -->
    <_>
      <maxWeakCount>5</maxWeakCount>
      <stageThreshold>-1.2175472974777222e+00</stageThreshold>
      <weakClassifiers>
        <_>
          <internalNodes>
            0 -1 63 -7.3107713833451271e-03</internalNodes>
          <leafValues>
            6.5795725584030151e-01 -6.4393270015716553e-01</leafValues></_>
        <_>
          <internalNodes>
            0 -1 36 -8.8198385128634982e-06</internalNodes>
          <leafValues>
            4.9326768517494202e-01 -6.1262071132659912e-01</leafValues></_>
        <_>
          <internalNodes>
            0 -1 5 3.4431591629981995e-03</internalNodes>
          <leafValues>
            -8.9882630109786987e-01 3.3771881461143494e-01</leafValues></_>
        <_>
          <internalNodes>
            0 -1 16 2.5107931345701218e-02</internalNodes>
          <leafValues>
            -5.6170070171356201e-01 5.6985706090927124e-01</leafValues></_>
        <_>
          <internalNodes>
            0 -1 42 -1.2580776819959283e-03</internalNodes>
          <leafValues>
            -8.6856973171234131e-01 2.8698801994323730e-01</leafValues></_></weakClassifiers></_>
    <!-- stage 15 -->
    <_>
      <maxWeakCount>5</maxWeakCount>
      <stageThreshold>-1.6914771795272827e+00</stageThreshold>
      <weakClassifiers>
        <_>
          <internalNodes>
            0 -1 43 -8.9705204591155052e-03</internalNodes>
          <leafValues>
            7.5449103116989136e-01 -5.7730263471603394e-01</leafValues></_>
        <_>
          <internalNodes>
            0 -1 53 -8.1671878433553502e-06</internalNodes>
          <leafValues>
            4.6985685825347900e-01 -6.3397586345672607e-01</leafValues></_>
        <_>
          <internalNodes>
            0 -1 34 2.7714569121599197e-02</internalNodes>
          <leafValues>
            -4.2139351367950439e-01 7.7776253223419189e-01</leafValues></_>
        <_>
          <internalNodes>
            0 -1 25 1.1213330551981926e-02</internalNodes>
          <leafValues>
            -5.5018240213394165e-01 5.7923382520675659e-01</leafValues></_>
        <_>
          <internalNodes>
            0 -1 69 -7.6453443398349918e-06</internalNodes>
          <leafValues>
            4.6840700507164001e-01 -6.3803905248641968e-01</leafValues></_></weakClassifiers></_></stages>
  <features>
    <_>
      <rects>
        <_>
          0 1 10 15 -1.</_>
        <_>
          5 1 5 15 2.</_></rects>
      <tilted>0</tilted></_>
    <_>
      <rects>
        <_>
          0 1 20 6 -1.</_>
        <_>
          10 1 10 6 2.</_></rects>
      <tilted>0</tilted></_>
    <_>
      <rects>
        <_>
          0 4 15 24 -1.</_>
        <_>
          5 4 5 24 3.</_></rects>
      <tilted>0</tilted></_>
    <_>
      <rects>
        <_>
          0 4 15 25 -1.</_>
        <_>
          5 4 5 25 3.</_></rects>
      <tilted>0</tilted></_>
    <_>
      <rects>
        <_>
          0 9 6 16 -1.</_>
        <_>
          3 9 3 16 2.</_></rects>
      <tilted>0</tilted></_>
    <_>
      <rects>
        <_>
          0 13 22 4 -1.</_>
        <_>
          11 13 11 4 2.</_></rects>
      <tilted>0</tilted></_>
    <_>
      <rects>
        <_>
          0 24 12 8 -1.</_>
        <_>
          0 28 12 4 2.</_></rects>
      <tilted>0</tilted></_>
    <_>
      <rects>
        <_>
          0 26 16 4 -1.</_>
        <_>
          8 26 8 4 2.</_></rects>
      <tilted>0</tilted></_>
    <_>
      <rects>
        <_>
          0 27 2 4 -1.</_>
        <_>
          0 29 2 2 2.</_></rects>
      <tilted>0</tilted></_>
    <_>
      <rects>
        <_>
          0 31 6 1 -1.</_>
        <_>
          3 31 3 1 2.</_></rects>
      <tilted>0</tilted></_>
    <_>
      <rects>
        <_>
          2 1 16 8 -1.</_>
        <_>
          2 1 8 4 2.</_>
        <_>
          10 5 8 4 2.</_></rects>
      <tilted>0</tilted></_>
    <_>
      <rects>
        <_>
          2 4 17 9 -1.</_>
        <_>
          2 7 17 3 3.</_></rects>
      <tilted>0</tilted></_>
    <_>
      <rects>
        <_>
          2 20 14 10 -1.</_>
        <_>
          2 20 7 5 2.</_>
        <_>
          9 25 7 5 2.</_></rects>
      <tilted>0</tilted></_>
    <_>
      <rects>
        <_>
          2 26 30 5 -1.</_>
        <_>
          12 26 10 5 3.</_></rects>
      <tilted>0</tilted></_>
    <_>
      <rects>
        <_>
          3 1 14 10 -1.</_>
        <_>
          3 1 7 5 2.</_>
        <_>
          10 6 7 5 2.</_></rects>
      <tilted>0</tilted></_>
    <_>
      <rects>
        <_>
          3 11 3 8 -1.</_>
        <_>
          4 11 1 8 3.</_></rects>
      <tilted>0</tilted></_>
    <_>
      <rects>
        <_>
          3 23 14 8 -1.</_>
        <_>
          3 23 7 4 2.</_>
        <_>
          10 27 7 4 2.</_></rects>
      <tilted>0</tilted></_>
    <_>
      <rects>
        <_>
          4 6 21 21 -1.</_>
        <_>
          4 13 21 7 3.</_></rects>
      <tilted>0</tilted></_>
    <_>
      <rects>
        <_>
          5 1 10 8 -1.</_>
        <_>
          5 1 5 4 2.</_>
        <_>
          10 5 5 4 2.</_></rects>
      <tilted>0</tilted></_>
    <_>
      <rects>
        <_>
          5 23 10 8 -1.</_>
        <_>
          5 23 5 4 2.</_>
        <_>
          10 27 5 4 2.</_></rects>
      <tilted>0</tilted></_>
    <_>
      <rects>
        <_>
          5 26 2 1 -1.</_>
        <_>
          6 26 1 1 2.</_></rects>
      <tilted>0</tilted></_>
    <_>
      <rects>
        <_>
          8 0 10 12 -1.</_>
        <_>
          13 0 5 12 2.</_></rects>
      <tilted>0</tilted></_>
    <_>
      <rects>
        <_>
          9 10 11 6 -1.</_>
        <_>
          9 12 11 2 3.</_></rects>
      <tilted>0</tilted></_>
    <_>
      <rects>
        <_>
          9 28 15 4 -1.</_>
        <_>
          9 30 15 2 2.</_></rects>
      <tilted>0</tilted></_>
    <_>
      <rects>
        <_>
          10 0 11 4 -1.</_>
        <_>
          10 2 11 2 2.</_></rects>
      <tilted>0</tilted></_>
    <_>
      <rects>
        <_>
          10 8 4 9 -1.</_>
        <_>
          10 11 4 3 3.</_></rects>
      <tilted>0</tilted></_>
    <_>
      <rects>
        <_>
          11 0 8 6 -1.</_>
        <_>
          11 2 8 2 3.</_></rects>
      <tilted>0</tilted></_>
    <_>
      <rects>
        <_>
          11 0 10 6 -1.</_>
        <_>
          11 2 10 2 3.</_></rects>
      <tilted>0</tilted></_>
    <_>
      <rects>
        <_>
          11 15 3 6 -1.</_>
        <_>
          12 15 1 6 3.</_></rects>
      <tilted>0</tilted></_>
    <_>
      <rects>
        <_>
          12 2 7 12 -1.</_>
        <_>
          12 6 7 4 3.</_></rects>
      <tilted>0</tilted></_>
    <_>
      <rects>
        <_>
          12 10 11 15 -1.</_>
        <_>
          12 15 11 5 3.</_></rects>
      <tilted>0</tilted></_>
    <_>
      <rects>
        <_>
          12 12 4 20 -1.</_>
        <_>
          12 22 4 10 2.</_></rects>
      <tilted>0</tilted></_>
    <_>
      <rects>
        <_>
          12 14 3 8 -1.</_>
        <_>
          13 14 1 8 3.</_></rects>
      <tilted>0</tilted></_>
    <_>
      <rects>
        <_>
          12 15 3 5 -1.</_>
        <_>
          13 15 1 5 3.</_></rects>
      <tilted>0</tilted></_>
    <_>
      <rects>
        <_>
          12 26 9 6 -1.</_>
        <_>
          12 28 9 2 3.</_></rects>
      <tilted>0</tilted></_>
    <_>
      <rects>
        <_>
          13 8 11 18 -1.</_>
        <_>
          13 14 11 6 3.</_></rects>
      <tilted>0</tilted></_>
    <_>
      <rects>
        <_>
          13 12 3 4 -1.</_>
        <_>
          13 14 3 2 2.</_></rects>
      <tilted>0</tilted></_>
    <_>
      <rects>
        <_>
          13 13 3 10 -1.</_>
        <_>
          14 13 1 10 3.</_></rects>
      <tilted>0</tilted></_>
    <_>
      <rects>
        <_>
          13 13 6 4 -1.</_>
        <_>
          13 15 6 2 2.</_></rects>
      <tilted>0</tilted></_>
    <_>
      <rects>
        <_>
          14 3 4 12 -1.</_>
        <_>
          14 7 4 4 3.</_></rects>
      <tilted>0</tilted></_>
    <_>
      <rects>
        <_>
          14 13 3 8 -1.</_>
        <_>
          15 13 1 8 3.</_></rects>
      <tilted>0</tilted></_>
    <_>
      <rects>
        <_>
          14 13 3 10 -1.</_>
        <_>
          15 13 1 10 3.</_></rects>
      <tilted>0</tilted></_>
    <_>
      <rects>
        <_>
          14 13 18 3 -1.</_>
        <_>
          20 13 6 3 3.</_></rects>
      <tilted>0</tilted></_>
    <_>
      <rects>
        <_>
          14 14 3 7 -1.</_>
        <_>
          15 14 1 7 3.</_></rects>
      <tilted>0</tilted></_>
    <_>
      <rects>
        <_>
          14 16 3 4 -1.</_>
        <_>
          15 16 1 4 3.</_></rects>
      <tilted>0</tilted></_>
    <_>
      <rects>
        <_>
          14 20 4 9 -1.</_>
        <_>
          14 23 4 3 3.</_></rects>
      <tilted>0</tilted></_>
    <_>
      <rects>
        <_>
          15 7 5 3 -1.</_>
        <_>
          15 8 5 1 3.</_></rects>
      <tilted>0</tilted></_>
    <_>
      <rects>
        <_>
          15 13 3 8 -1.</_>
        <_>
          16 13 1 8 3.</_></rects>
      <tilted>0</tilted></_>
    <_>
      <rects>
        <_>
          15 14 3 7 -1.</_>
        <_>
          16 14 1 7 3.</_></rects>
      <tilted>0</tilted></_>
    <_>
      <rects>
        <_>
          15 19 12 6 -1.</_>
        <_>
          15 19 6 3 2.</_>
        <_>
          21 22 6 3 2.</_></rects>
      <tilted>0</tilted></_>
    <_>
      <rects>
        <_>
          16 14 3 6 -1.</_>
        <_>
          17 14 1 6 3.</_></rects>
      <tilted>0</tilted></_>
    <_>
      <rects>
        <_>
          16 14 5 6 -1.</_>
        <_>
          16 16 5 2 3.</_></rects>
      <tilted>0</tilted></_>
    <_>
      <rects>
        <_>
          16 26 16 5 -1.</_>
        <_>
          24 26 8 5 2.</_></rects>
      <tilted>0</tilted></_>
    <_>
      <rects>
        <_>
          17 7 3 3 -1.</_>
        <_>
          17 8 3 1 3.</_></rects>
      <tilted>0</tilted></_>
    <_>
      <rects>
        <_>
          17 9 12 12 -1.</_>
        <_>
          17 9 6 6 2.</_>
        <_>
          23 15 6 6 2.</_></rects>
      <tilted>0</tilted></_>
    <_>
      <rects>
        <_>
          17 14 3 5 -1.</_>
        <_>
          18 14 1 5 3.</_></rects>
      <tilted>0</tilted></_>
    <_>
      <rects>
        <_>
          17 19 10 6 -1.</_>
        <_>
          17 19 5 3 2.</_>
        <_>
          22 22 5 3 2.</_></rects>
      <tilted>0</tilted></_>
    <_>
      <rects>
        <_>
          17 25 15 1 -1.</_>
        <_>
          22 25 5 1 3.</_></rects>
      <tilted>0</tilted></_>
    <_>
      <rects>
        <_>
          18 26 12 1 -1.</_>
        <_>
          22 26 4 1 3.</_></rects>
      <tilted>0</tilted></_>
    <_>
      <rects>
        <_>
          19 1 8 10 -1.</_>
        <_>
          19 1 4 5 2.</_>
        <_>
          23 6 4 5 2.</_></rects>
      <tilted>0</tilted></_>
    <_>
      <rects>
        <_>
          19 26 12 3 -1.</_>
        <_>
          25 26 6 3 2.</_></rects>
      <tilted>0</tilted></_>
    <_>
      <rects>
        <_>
          20 1 6 30 -1.</_>
        <_>
          20 11 6 10 3.</_></rects>
      <tilted>0</tilted></_>
    <_>
      <rects>
        <_>
          21 22 6 8 -1.</_>
        <_>
          21 22 3 4 2.</_>
        <_>
          24 26 3 4 2.</_></rects>
      <tilted>0</tilted></_>
    <_>
      <rects>
        <_>
          23 18 6 3 -1.</_>
        <_>
          25 18 2 3 3.</_></rects>
      <tilted>0</tilted></_>
    <_>
      <rects>
        <_>
          23 20 6 8 -1.</_>
        <_>
          23 20 3 4 2.</_>
        <_>
          26 24 3 4 2.</_></rects>
      <tilted>0</tilted></_>
    <_>
      <rects>
        <_>
          24 3 8 24 -1.</_>
        <_>
          28 3 4 24 2.</_></rects>
      <tilted>0</tilted></_>
    <_>
      <rects>
        <_>
          26 9 6 12 -1.</_>
        <_>
          28 9 2 12 3.</_></rects>
      <tilted>0</tilted></_>
    <_>
      <rects>
        <_>
          28 10 4 14 -1.</_>
        <_>
          30 10 2 14 2.</_></rects>
      <tilted>0</tilted></_>
    <_>
      <rects>
        <_>
          28 21 4 1 -1.</_>
        <_>
          30 21 2 1 2.</_></rects>
      <tilted>0</tilted></_>
    <_>
      <rects>
        <_>
          30 21 2 1 -1.</_>
        <_>
          31 21 1 1 2.</_></rects>
      <tilted>0</tilted></_></features></cascade>
</opencv_storage>
